<?xml version="1.0" encoding="ISO-8859-1"?>
<smile version="1.0" id="Unnamed" numsamples="1000" discsamples="10000">
	<nodes>
		<cpt id="ventas">
			<state id="vent1" />
			<state id="vent2" />
			<state id="vent3" />
			<probabilities>0.3113151951274675 0.3394685958021553 0.3492162090703772</probabilities>
		</cpt>
		<cpt id="periodo">
			<state id="per1" />
			<state id="per2" />
			<state id="per3" />
			<state id="per4" />
			<parents>ventas</parents>
			<probabilities>0.2901817233017159 0.2201936949381466 0.2222503606839181 0.2673742210762194 0.2134180671677505 0.2582622526250598 0.2794034850660136 0.2489161951411761 0.3219836904468708 0.2619721971376187 0.1607763456749583 0.2552677667405522</probabilities>
		</cpt>
		<cpt id="alimento">
			<state id="alim01" />
			<state id="alim02" />
			<state id="alim03" />
			<state id="alim04" />
			<state id="alim05" />
			<state id="alim06" />
			<state id="alim07" />
			<state id="alim08" />
			<state id="alim09" />
			<state id="alim10" />
			<state id="alim11" />
			<parents>periodo ventas</parents>
			<probabilities>0.1710483297113295 9.61593938111814e-006 0.2533415389349386 0.06442679385349155 0.0507817758716849 9.61593938111814e-006 9.61593938111814e-006 0.1836355943612131 0.0507817758716849 0.0742638998403754 0.1516914437371387 0.08455432723435891 0.07861921776456202 0.0006714467278962136 0.05487877988537445 0.1266276588091413 0.2175007793578092 1.199012014100381e-005 0.08758782763003287 0.06173712860602863 0.2870075058152083 0.0008033380494472556 0.05286741812619267 0.1941098758469371 0.04079977131732039 0.1576519851356258 0.1223838624195555 0.104622325919173 7.725766202863168e-006 0.04079977131732039 0.1641957091094509 0.0001776926226658529 0.1223838624195555 0.200737511721621 0.04155156246039993 0.06608459842360039 0.2263856856831488 1.267202270826469e-005 0.200737511721621 1.267202270826469e-005 0.06371493017715489 1.267202270826469e-005 1.267202270826469e-005 0.200737511721621 9.90834778300718e-006 0.240118900173396 0.1576120881842952 0.06976467674015358 0.1261134505821154 0.05287094377012632 9.90834778300718e-006 0.2637701263314342 9.90834778300718e-006 0.08971018082734703 9.90834778300718e-006 0.1504168486620962 0.03959587519228212 0.1002810642459692 0.06435041874774485 0.1799760715574378 0.09975881649163454 9.495413715175568e-006 0.0003228440663159694 9.495413715175568e-006 0.2148622215469928 0.1504168486620962 0.1988801144995041 0.1887986340410039 0.06284917954576842 0.008574908036308398 1.255477018493177e-005 1.255477018493177e-005 0.1571731679451608 0.01934690085497985 0.1654593162672157 1.255477018493177e-005 0.1988801144995041 9.158683347681937e-006 0.1524371256388182 0.1958584433901782 0.2614437748429286 9.158683347681937e-006 9.158683347681937e-006 0.1132471195940872 0.1309783305551994 0.1459894125620501 9.158683347681937e-006 9.158683347681937e-006 0.2450801410978402 1.547125440930751e-005 0.08187387833405532 0.03796645832044063 1.547125440930751e-005 1.547125440930751e-005 0.1051890587288818 0.2450801410978402 0.03966829630546445 1.547125440930751e-005 0.2450801410978402 0.1646298828023085 0.02698782104131662 0.1604971770280001 0.1102159234405819 1.043612569269784e-005 1.043612569269784e-005 0.07772826415921354 0.2742613832040993 1.043612569269784e-005 1.043612569269784e-005 0.1856378038217092 0.0006887831155613582 0.1085707236334852 0.1673742970814101 0.1355977506605122 0.0529334964481408 0.2976468290275822 0.06887831155613583 0.05553442373526055 1.028034500837848e-005 0.04026811139781851 0.07249699299908505 0.1543671249963457 0.1806293181574562 0.0002241300343990879 0.0772956275153724 0.2585583566396086 0.02659351582065699 0.1708747892690437 9.744784104308167e-006 9.744784104308167e-006 0.06475409037312778 0.06668355762578081</probabilities>
		</cpt>
		<cpt id="provincia">
			<state id="prov1" />
			<state id="prov2" />
			<parents>alimento ventas</parents>
			<probabilities>0.9685603506405934 0.03143964935940661 0.02391975308641975 0.9760802469135802 0.0001011531458628363 0.9998988468541372 0.3874276696475539 0.6125723303524461 0.5411530438080789 0.4588469561919211 0.4993101862497126 0.5006898137502874 0.4940715646834639 0.5059284353165361 0.702932731747334 0.2970672682526662 0.0002598752598752599 0.9997401247401248 0.4362714987714987 0.5637285012285013 0.4499072356215213 0.5500927643784787 0.6318793911007026 0.3681206088992974 0.00103950103950104 0.998960498960499 0.2619876256767208 0.7380123743232793 0.6534253945480631 0.3465746054519369 0.9996530187369882 0.0003469812630117974 0.6032095657646318 0.3967904342353681 0.002258726899383984 0.997741273100616 0.2177863436123348 0.7822136563876653 0.711361014994233 0.288638985005767 0.5659737912336196 0.4340262087663805 0.6075587550285836 0.3924412449714165 0.2970672682526662 0.702932731747334 0.7502598752598753 0.2497401247401248 0.4219773674806433 0.5780226325193568 0.3819082377476538 0.6180917622523462 0.665050784856879 0.3349492151431209 0.6493598862019915 0.3506401137980086 0.5028307508939213 0.4971692491060786 0.4570195195195195 0.5429804804804804 0.03143964935940661 0.9685603506405934 0.9760802469135802 0.02391975308641975 0.9998988468541372 0.0001011531458628363</probabilities>
		</cpt>
		<cpt id="temperatura">
			<state id="temp1_b15" />
			<state id="temp2_15_20" />
			<state id="temp3_20_25" />
			<state id="temp4_25up" />
			<parents>periodo ventas</parents>
			<probabilities>2.644383329807489e-005 2.644383329807489e-005 0.2575893801565475 0.7423577321768563 3.297283038776049e-005 3.297283038776049e-005 0.1948364547612767 0.8050975995779478 2.124585705787371e-005 2.124585705787371e-005 0.2284567009433161 0.7715008073425682 0.1738569835517145 0.3550669082798996 0.3752787844995818 0.09579732366880402 0.1788828337874659 0.3562125340599455 0.3704904632152589 0.09441416893732969 0.1871997075412576 0.3326979318988929 0.3696730729057865 0.1104292876540631 0.8017193757768264 0.1982115729871565 3.452561800856235e-005 3.452561800856235e-005 0.8084072133790047 0.1915424138625831 2.518637920612533e-005 2.518637920612533e-005 0.8324115044247787 0.16750340367597 4.254594962559564e-005 4.254594962559564e-005 0.09772127195499943 0.4643841120422454 0.3860922970956263 0.05180231890712892 0.1287176297636549 0.4865147574352595 0.3369048965283275 0.04786271627275811 0.09553542716261121 0.4698520741772966 0.3782023796762782 0.05641011898381391</probabilities>
		</cpt>
	</nodes>
	<extensions>
		<genie version="1.0" app="GeNIe 2.0.5590.0" name="aleatorio" faultnameformat="nodestate">
			<node id="provincia">
				<name>provincia</name>
				<interior color="e5f6f7" />
				<outline color="000080" />
				<font color="000000" name="Arial" size="8" />
				<position>708 332 780 380</position>
				<barchart active="true" width="128" height="64" />
			</node>
			<node id="alimento">
				<name>alimento</name>
				<interior color="e5f6f7" />
				<outline color="000080" />
				<font color="000000" name="Arial" size="8" />
				<position>362 358 434 406</position>
				<barchart active="true" width="128" height="216" />
			</node>
			<node id="periodo">
				<name>periodo</name>
				<interior color="e5f6f7" />
				<outline color="000080" />
				<font color="000000" name="Arial" size="8" />
				<position>215 186 287 234</position>
				<barchart active="true" width="128" height="90" />
			</node>
			<node id="temperatura">
				<name>temperatura</name>
				<interior color="e5f6f7" />
				<outline color="000080" />
				<font color="000000" name="Arial" size="8" />
				<position>395 43 467 91</position>
				<barchart active="true" width="128" height="90" />
			</node>
			<node id="ventas">
				<name>ventas</name>
				<interior color="ffff80" />
				<outline color="000080" />
				<font color="000000" name="Arial" size="8" />
				<position>697 132 769 180</position>
				<barchart active="true" width="346" height="72" />
			</node>
		</genie>
	</extensions>
</smile>
