<?xml version="1.0" encoding="ISO-8859-1"?>
<smile version="1.0" id="Unnamed" numsamples="1000" discsamples="10000">
	<nodes>
		<cpt id="ventas">
			<state id="v1_below_300" />
			<state id="v2_300_600" />
			<state id="v3_600_up" />
			<probabilities>0.3113154055414333 0.3394685371711805 0.3492160572873862</probabilities>
		</cpt>
		<cpt id="temperatura">
			<state id="t1_below_15" />
			<state id="t2_15_20" />
			<state id="t3_20_24" />
			<state id="t4_24_28" />
			<state id="t5_28_up" />
			<parents>ventas</parents>
			<probabilities>0.2123027810178648 0.2744305973356253 0.1903861501626865 0.2041377616796611 0.1187427098041623 0.2466051120369328 0.3345456592726044 0.2159216304470217 0.1452651728408963 0.05766242540254477 0.1823664623467601 0.235234238178634 0.1800131348511384 0.2451948336252189 0.1571913309982487</probabilities>
		</cpt>
		<cpt id="periodo">
			<state id="p1" />
			<state id="p2" />
			<state id="p3" />
			<state id="p4" />
			<parents>temperatura ventas</parents>
			<probabilities>7.227522405319457e-005 0.1767129228100607 0.759251228678809 0.06396357328707719 5.706459712394431e-005 0.1719356311344442 0.7599292398995663 0.06807806436886556 7.500750075007501e-005 0.1443894389438944 0.7816531653165317 0.07388238823882389 5.591590248266607e-005 0.3614963095504362 0.2031424737195258 0.4353053008275554 4.206629648325762e-005 0.3379185596500084 0.1950614167928656 0.4669779572606428 5.815305885089556e-005 0.2875668760176785 0.2077808792742498 0.5045940916492208 0.1719052224371373 0.4426982591876209 8.059316569954868e-005 0.3853159252095422 0.06966892596454641 0.448448905109489 6.517205422314912e-005 0.4818169968717414 0.2432370820668693 0.3183130699088146 7.598784194528876e-005 0.4383738601823708 0.7096361996392063 0.192498496692724 7.51653638003608e-005 0.0977901383042694 0.4708446338628439 0.3104416892677257 9.686168151879117e-005 0.2186168151879117 0.797868779290337 0.1102990403927695 5.57911180540058e-005 0.09177638919883954 0.9686046511627906 0.03113695090439276 0.0001291989664082687 0.0001291989664082687 0.9280487804878049 0.07146341463414634 0.0002439024390243902 0.0002439024390243902 0.9833797424295163 0.01644622345979812 8.701705534284721e-005 8.701705534284721e-005</probabilities>
		</cpt>
		<cpt id="alimento">
			<state id="a1" />
			<state id="a2" />
			<state id="a3" />
			<state id="a4" />
			<state id="a5" />
			<state id="a6" />
			<state id="a7" />
			<state id="a8" />
			<state id="a9" />
			<state id="a10" />
			<state id="a11" />
			<parents>periodo ventas</parents>
			<probabilities>0.3001449054301404 1.906650396583283e-005 0.3020324893227578 1.906650396583283e-005 1.906650396583283e-005 1.906650396583283e-005 1.906650396583283e-005 0.3020324893227578 1.906650396583283e-005 0.0956566503965833 1.906650396583283e-005 0.003734966758795848 3.734966758795847e-005 3.734966758795847e-005 3.734966758795847e-005 3.734966758795847e-005 0.5916560842608502 3.734966758795847e-005 3.734966758795847e-005 3.734966758795847e-005 0.4043101516396505 3.734966758795847e-005 1.262450922220399e-005 0.1999848505889334 1.262450922220399e-005 0.1999848505889334 0.1999848505889334 1.262450922220399e-005 1.262450922220399e-005 1.262450922220399e-005 0.1999848505889334 1.262450922220399e-005 0.1999848505889334 0.3348269958360636 2.11367335292004e-005 2.11367335292004e-005 0.3301769144596395 2.11367335292004e-005 0.3348269958360636 2.11367335292004e-005 2.11367335292004e-005 2.11367335292004e-005 2.11367335292004e-005 2.11367335292004e-005 1.697331794419173e-005 0.2677540905696246 0.2688743295539413 0.003751103265666373 0.1264172720483401 1.697331794419173e-005 1.697331794419173e-005 0.2683142100617829 1.697331794419173e-005 0.06480412791092403 1.697331794419173e-005 2.749821261617995e-005 0.001842380245284057 2.749821261617995e-005 2.749821261617995e-005 0.2308199967002145 2.749821261617995e-005 2.749821261617995e-005 0.0009349392289501183 2.749821261617995e-005 0.3306385084969477 0.4355991860529066 0.4073807380738075 0.2082293943680083 0.1287385881445288 2.571685740002572e-005 2.571685740002572e-005 2.571685740002572e-005 0.05518837598045521 2.571685740002572e-005 0.2003086022888004 2.571685740002572e-005 2.571685740002572e-005 2.025152392717552e-005 0.1568480528159744 0.219445513274874 0.3208043905303874 2.025152392717552e-005 2.025152392717552e-005 0.1396950120496568 2.025152392717552e-005 0.1630855221855445 2.025152392717552e-005 2.025152392717552e-005 2.59814492452389e-005 2.59814492452389e-005 2.59814492452389e-005 2.59814492452389e-005 2.59814492452389e-005 2.59814492452389e-005 0.1766478734183793 0.4115721374938295 2.59814492452389e-005 2.59814492452389e-005 0.4115721374938295 0.38885328337606 2.46499704200355e-005 0.1187882074541511 2.46499704200355e-005 2.46499704200355e-005 2.46499704200355e-005 0.05425458489449814 0.3874975350029581 2.46499704200355e-005 2.46499704200355e-005 0.05045848944981268 0.001110264143439499 0.1303483246611209 0.1826633082557253 0.1316242998707454 1.657110661849998e-005 0.2615914890796407 0.1104795678255394 0.002021675007456998 1.657110661849998e-005 0.06490902462466443 0.1152189043184304 2.129517238442045e-005 0.1698502949381375 2.129517238442045e-005 0.1682105666645372 0.3373368257416043 0.001192529653527545 0.1485338273813327 2.129517238442045e-005 2.129517238442045e-005 0.02906791030473392 0.1457228646265892</probabilities>
		</cpt>
	</nodes>
	<extensions>
		<genie version="1.0" app="GeNIe 2.0.5590.0" name="aleatorio_disc" faultnameformat="nodestate">
			<node id="alimento">
				<name>alimento</name>
				<interior color="e5f6f7" />
				<outline color="000080" />
				<font color="000000" name="Arial" size="8" />
				<position>557 208 629 256</position>
				<barchart active="true" width="128" height="216" />
			</node>
			<node id="periodo">
				<name>periodo</name>
				<interior color="e5f6f7" />
				<outline color="000080" />
				<font color="000000" name="Arial" size="8" />
				<position>139 267 211 315</position>
				<barchart active="true" width="128" height="90" />
			</node>
			<node id="temperatura">
				<name>temperatura</name>
				<interior color="e5f6f7" />
				<outline color="000080" />
				<font color="000000" name="Arial" size="8" />
				<position>96 114 168 162</position>
				<barchart active="true" width="128" height="108" />
			</node>
			<node id="ventas">
				<name>ventas</name>
				<interior color="ffff80" />
				<outline color="000080" />
				<font color="000000" name="Arial" size="8" />
				<position>356 108 428 156</position>
				<barchart active="true" width="128" height="72" />
			</node>
		</genie>
	</extensions>
</smile>
