<?xml version="1.0" encoding="ISO-8859-1"?>
<smile version="1.0" id="Unnamed" numsamples="1000" discsamples="10000">
	<nodes>
		<cpt id="Ventas">
			<state id="ventasMinimas" />
			<state id="ventasModeradas" />
			<state id="ventasMayor" />
			<probabilities>0.3329546530341759 0.333238663258544 0.3338066837072801</probabilities>
		</cpt>
		<cpt id="TipoAlimento">
			<state id="Frutas" />
			<state id="Verduras" />
			<parents>Ventas</parents>
			<probabilities>0.5213128729752771 0.4786871270247229 0.446763202725724 0.553236797274276 0.2325680272108844 0.7674319727891156</probabilities>
		</cpt>
		<cpt id="Alimento">
			<state id="Frutillas" />
			<state id="SNaranja_jugo" />
			<state id="Tomate" />
			<state id="Banana" />
			<state id="SPimiento_Rojo" />
			<state id="Ajo" />
			<state id="Batata" />
			<state id="SCebolla_blanca" />
			<state id="SManzana_roja" />
			<state id="SPapa_negra" />
			<parents>TipoAlimento Ventas</parents>
			<probabilities>0.3465686274509803 0.3204248366013071 0.0001633986928104574 0.2174836601307189 0.0001633986928104574 0.0001633986928104574 0.0001633986928104574 0.0001633986928104574 0.1145424836601307 0.0001633986928104574 0.1487619047619047 0.1925714285714285 0.0001904761904761904 0.3392380952380952 0.0001904761904761904 0.0001904761904761904 0.0001904761904761904 0.0001904761904761904 0.3182857142857142 0.0001904761904761904 0.2266423357664233 0.2010948905109489 0.0003649635036496349 0.15 0.0003649635036496349 0.0003649635036496349 0.0003649635036496349 0.0003649635036496349 0.4200729927007298 0.0003649635036496349 0.0001779359430604982 0.0001779359430604982 0.3062277580071174 0.0001779359430604982 0.1887900355871886 0.08202846975088968 0.09270462633451958 0.08558718861209964 0.0001779359430604982 0.243950177935943 0.0001538461538461538 0.0001538461538461538 0.1447692307692307 0.0001538461538461538 0.2293846153846154 0.1463076923076923 0.2201538461538461 0.1555384615384615 0.0001538461538461538 0.1032307692307692 0.0001107419712070874 0.0001107419712070874 0.09534883720930232 0.0001107419712070874 0.1075304540420819 0.2337763012181617 0.1739756367663344 0.2249169435215947 0.0001107419712070874 0.1640088593576966</probabilities>
		</cpt>
		<cpt id="provincia">
			<state id="SBuenos_Aires" />
			<state id="CABA" />
			<state id="NEUQUEN" />
			<state id="TUCUMAN" />
			<parents>Alimento Ventas</parents>
			<probabilities>0.221830985915493 0.2077464788732394 0.2359154929577465 0.3345070422535211 0.2436708860759494 0.05379746835443038 0.4841772151898734 0.2183544303797468 0.3531746031746031 0.6388888888888888 0.003968253968253968 0.003968253968253968 0.2956852791878172 0.2043147208121827 0.3058375634517767 0.1941624365482233 0.08088235294117648 0.267156862745098 0.2769607843137255 0.375 0.3973214285714286 0.3794642857142857 0.004464285714285714 0.21875 0.1286127167630058 0.2210982658959537 0.3829479768786127 0.2673410404624277 0.4657894736842105 0.3184210526315789 0.002631578947368421 0.2131578947368421 0.2557471264367816 0.2327586206896552 0.2557471264367816 0.2557471264367816 0.2406716417910448 0.03171641791044776 0.3600746268656717 0.3675373134328358 0.2136871508379888 0.3421787709497207 0.2248603351955307 0.2192737430167598 0.4345238095238095 0.5535714285714285 0.005952380952380952 0.005952380952380952 0.1425233644859813 0.2266355140186916 0.3948598130841121 0.2359813084112149 0.2683333333333334 0.3216666666666667 0.2083333333333333 0.2016666666666667 0.3392857142857143 0.1658163265306122 0.1556122448979592 0.3392857142857143 0.2606382978723404 0.4734042553191489 0.2606382978723404 0.005319148936170213 0.1067708333333333 0.09635416666666666 0.4192708333333333 0.3776041666666666 0.3125 0.2700471698113208 0.1709905660377359 0.2464622641509434 0.4575471698113208 0.4009433962264151 0.04245283018867924 0.0990566037735849 0.1475694444444445 0.2378472222222222 0.3767361111111111 0.2378472222222222 0.2737341772151899 0.2104430379746835 0.2041139240506329 0.3117088607594937 0.2908163265306122 0.3316326530612245 0.00510204081632653 0.3724489795918367 0.2573529411764706 0.4534313725490196 0.2279411764705882 0.06127450980392157 0.2365196078431373 0.1286764705882353 0.3198529411764706 0.3149509803921569 0.4542253521126761 0.3838028169014084 0.102112676056338 0.05985915492957747 0.1383928571428571 0.275297619047619 0.3467261904761905 0.2395833333333333 0.2866379310344828 0.1314655172413793 0.2004310344827586 0.3814655172413793 0.197463768115942 0.1902173913043478 0.2989130434782609 0.3134057971014493 0.2536764705882353 0.2977941176470588 0.1066176470588235 0.3419117647058824 0.2969798657718121 0.2835570469798658 0.2701342281879194 0.1493288590604027</probabilities>
		</cpt>
		<cpt id="periodo">
			<state id="Invierno" />
			<state id="Otono" />
			<state id="Primavera" />
			<state id="Verano" />
			<parents>Alimento Ventas</parents>
			<probabilities>0.3298122065727699 0.05751173708920188 0.4049295774647888 0.2077464788732394 0.2310126582278481 0.7373417721518988 0.02848101265822785 0.003164556962025316 0.003968253968253968 0.2896825396825397 0.003968253968253968 0.7023809523809523 0.315989847715736 0.2449238578680203 0.4378172588832487 0.001269035532994924 0.2573529411764706 0.3946078431372549 0.02205882352941176 0.3259803921568628 0.004464285714285714 0.004464285714285714 0.004464285714285714 0.9866071428571428 0.2442196531791907 0.2442196531791907 0.5101156069364161 0.001445086705202312 0.4868421052631579 0.4868421052631579 0.002631578947368421 0.02368421052631579 0.002873563218390805 0.002873563218390805 0.002873563218390805 0.9913793103448276 0.09888059701492537 0.09888059701492537 0.5242537313432836 0.2779850746268657 0.3812849162011173 0.3812849162011173 0.1019553072625698 0.1354748603351955 0.1726190476190476 0.1726190476190476 0.005952380952380952 0.6488095238095237 0.1985981308411215 0.02102803738317757 0.7593457943925233 0.02102803738317757 0.4483333333333334 0.2483333333333334 0.04833333333333334 0.255 0.002551020408163265 0.5025510204081632 0.002551020408163265 0.4923469387755102 0.005319148936170213 0.005319148936170213 0.09042553191489361 0.898936170212766 0.06510416666666666 0.0234375 0.4296875 0.4817708333333333 0.3879716981132075 0.4068396226415094 0.2040094339622642 0.001179245283018868 0.004716981132075472 0.7028301886792453 0.04245283018867924 0.25 0.04340277777777778 0.1684027777777778 0.3142361111111111 0.4739583333333333 0.5205696202531646 0.1724683544303798 0.2610759493670886 0.04588607594936709 0.00510204081632653 0.00510204081632653 0.00510204081632653 0.9846938775510203 0.002450980392156863 0.3259803921568628 0.2769607843137255 0.3946078431372549 0.4325980392156863 0.2708333333333333 0.295343137254902 0.001225490196078431 0.1866197183098592 0.03169014084507042 0.75 0.03169014084507042 0.3407738095238095 0.2276785714285714 0.2098214285714286 0.2217261904761905 0.1573275862068966 0.415948275862069 0.002155172413793103 0.4245689655172414 0.269927536231884 0.3206521739130435 0.3206521739130435 0.08876811594202899 0.1066176470588235 0.003676470588235294 0.03308823529411765 0.8566176470588235 0.2969798657718121 0.2969798657718121 0.2835570469798658 0.1224832214765101</probabilities>
		</cpt>
		<cpt id="temperatura">
			<state id="temp1_below_14" />
			<state id="temp2_14_17" />
			<state id="temp3_17_22" />
			<state id="temp4_22_up" />
			<parents>periodo Ventas</parents>
			<probabilities>0.8889961389961391 0.1090733590733591 0.0009652509652509653 0.0009652509652509653 0.8981788079470199 0.1001655629139073 0.0008278145695364238 0.0008278145695364238 0.873447204968944 0.125 0.0007763975155279503 0.0007763975155279503 0.1654228855721393 0.3495024875621891 0.2947761194029851 0.1902985074626866 0.1707492795389049 0.3061959654178674 0.2802593659942363 0.2427953890489913 0.167910447761194 0.35 0.2664179104477612 0.2156716417910448 0.0004854368932038835 0.3830097087378641 0.6160194174757281 0.0004854368932038835 0.00138121546961326 0.3991712707182321 0.5980662983425414 0.00138121546961326 0.001336898395721925 0.3970588235294117 0.6002673796791443 0.001336898395721925 0.001243781094527363 0.001243781094527363 0.1703980099502488 0.8271144278606966 0.0007204610951008645 0.0007204610951008645 0.196685878962536 0.8018731988472622 0.0007462686567164179 0.0007462686567164179 0.132089552238806 0.8664179104477612</probabilities>
		</cpt>
	</nodes>
	<extensions>
		<genie version="1.0" app="GeNIe 2.0.5590.0" name="DatosDiscretosRed" faultnameformat="nodestate">
			<node id="TipoAlimento">
				<name>TipoAlimento</name>
				<interior color="e5f6f7" />
				<outline color="000080" />
				<font color="000000" name="Arial" size="8" />
				<position>676 325 748 373</position>
				<barchart active="true" width="128" height="64" />
			</node>
			<node id="Alimento">
				<name>Alimento</name>
				<interior color="e5f6f7" />
				<outline color="000080" />
				<font color="000000" name="Arial" size="8" />
				<position>382 434 454 482</position>
				<barchart active="true" width="128" height="198" />
			</node>
			<node id="provincia">
				<name>provincia</name>
				<interior color="e5f6f7" />
				<outline color="000080" />
				<font color="000000" name="Arial" size="8" />
				<position>132 275 204 323</position>
				<barchart active="true" width="128" height="90" />
			</node>
			<node id="periodo">
				<name>periodo</name>
				<interior color="e5f6f7" />
				<outline color="000080" />
				<font color="000000" name="Arial" size="8" />
				<position>137 53 209 101</position>
				<barchart active="true" width="128" height="90" />
			</node>
			<node id="temperatura">
				<name>temperatura</name>
				<interior color="e5f6f7" />
				<outline color="000080" />
				<font color="000000" name="Arial" size="8" />
				<position>624 65 696 113</position>
				<barchart active="true" width="128" height="90" />
			</node>
			<node id="Ventas">
				<name>Ventas</name>
				<interior color="ffff80" />
				<outline color="000080" />
				<font color="000000" name="Arial" size="8" />
				<position>458 160 530 208</position>
				<barchart active="true" width="240" height="72" />
			</node>
		</genie>
	</extensions>
</smile>
